export default function predict(input
/*``*/) {
  var net = {"layers":[{"0":{},"1":{},"2":{},"3":{},"4":{},"5":{},"6":{},"7":{}},{"0":{"bias":37.50684530500168,"weights":{"0":-50.50279576159086,"1":-49.9345660365896,"2":-18.087368929668422,"3":-0.5076918476812061,"4":-0.11051818686553147,"5":47.5605116877627,"6":-3.0464423036428,"7":-24.526126582665484}},"1":{"bias":-10.857848066304983,"weights":{"0":-12.769042787536858,"1":-10.415004487144817,"2":19.347832703919526,"3":25.59953263090509,"4":0.8683646633204122,"5":-5.475107845896825,"6":5.501019464107404,"7":-22.942770435704332}},"2":{"bias":9.68013402315369,"weights":{"0":-21.66104925713799,"1":10.284819437255516,"2":-18.400069589498493,"3":25.936552508761075,"4":17.85541990680168,"5":11.27822649519559,"6":-19.738006749800178,"7":-22.790889025653755}},"3":{"bias":-29.014678617466167,"weights":{"0":-32.69103025943875,"1":-12.021094699833665,"2":53.895078086252305,"3":77.06116644995375,"4":-0.19120815328886448,"5":6.590341414424226,"6":15.630554544094998,"7":-9.371526572882999}},"4":{"bias":41.77724337209663,"weights":{"0":-24.365597215826778,"1":-39.58034684471016,"2":2.1399713607754784,"3":-17.562152530986687,"4":3.4384487782197257,"5":-4.7124870978354645,"6":-13.204756089396762,"7":-31.650820693940037}},"5":{"bias":-27.96961558144679,"weights":{"0":-4.014906957978663,"1":71.26534976506846,"2":7.033965033320843,"3":-26.768329759607933,"4":2.38524273639171,"5":-0.43258387898421513,"6":-3.2746536454334114,"7":-2.9217678834688385}},"6":{"bias":10.097121385120149,"weights":{"0":-42.339150833311685,"1":8.282308276859245,"2":23.65087231672756,"3":-53.00956446692521,"4":-0.8913497579414994,"5":29.81319063307274,"6":2.695934211822582,"7":-0.4323202880850782}},"7":{"bias":3.137490072332714,"weights":{"0":-14.317969784218603,"1":-4.044362891881313,"2":-28.34573647059241,"3":-30.14838595640393,"4":38.99148238208532,"5":-4.9446905699842345,"6":-4.8989579192516866,"7":-1.055789274255218}}},{"0":{"bias":-2.869238053001481,"weights":{"0":-12.384049920460953,"1":-6.2896493203690085,"2":13.953449070340964,"3":-9.151701340780953,"4":-1.776220472465008,"5":0.24559861340660405,"6":3.3086000369175164,"7":-20.237088064526112}},"1":{"bias":18.483144403959184,"weights":{"0":-21.195505411448796,"1":20.584746743680153,"2":-10.363950292966273,"3":-21.172782946343464,"4":-2.519939099272927,"5":-17.1282169408697,"6":23.352994978854213,"7":1.5679585793266198}},"2":{"bias":-33.02930712084325,"weights":{"0":17.563873809713883,"1":-2.045036478896988,"2":21.314210614659483,"3":-12.868576833860443,"4":-11.773963497857583,"5":11.010613329312351,"6":0.36037477635545134,"7":10.3104574298154}},"3":{"bias":1.5889844891816232,"weights":{"0":-17.576841826123943,"1":6.3933147545568145,"2":-18.049774602872912,"3":29.90117943918081,"4":28.655538025811122,"5":-12.807639133980295,"6":-4.585346280898987,"7":5.088314704382493}}},{"0":{"bias":-19.398440699039256,"weights":{"0":17.75286784573609,"1":17.935733720316254,"2":18.824541951411298,"3":16.08992662731659}}}],"outputLookup":false,"inputLookup":false};

  for (var i = 1; i < net.layers.length; i++) {
    var layer = net.layers[i];
    var output = {};

    for (var id in layer) {
      var node = layer[id];
      var sum = node.bias;

      for (var iid in node.weights) {
        sum += node.weights[iid] * input[iid];
      }
      output[id] = (1 / (1 + Math.exp(-sum)));
    }
    input = output;
  }
  return output;
}
